~o
<STREAMINFO> 1 26
<VECSIZE> 26<NULLD><MFCC_D_0><DIAGC>
~h "EIGHT"
<BEGINHMM>
<NUMSTATES> 5
<STATE> 2
<MEAN> 26
 -9.566193e+00 -8.938757e+00 1.410539e+01 -1.165629e+01 -2.184367e+01 -8.056329e+00 -9.750208e+00 -6.411207e+00 -7.830098e+00 -3.589759e-01 4.046585e+00 -5.237656e+00 6.785177e+01 1.018778e-01 -3.654346e-01 3.740800e-01 -2.672134e-01 -1.839202e-01 -3.272752e-02 -3.034609e-01 -1.401036e-01 -2.641467e-01 -3.097508e-01 -1.135516e-01 -1.887418e-01 4.975753e-01
<VARIANCE> 26
 1.196026e+01 5.043909e+01 3.241330e+01 8.910411e+01 4.352026e+01 2.383486e+01 4.167953e+01 4.075855e+01 4.831271e+01 7.040508e+01 1.138956e+02 4.442856e+01 4.250418e+01 4.835792e-01 6.598019e-01 8.883082e-01 1.947525e+00 1.255175e+00 1.257031e+00 1.085205e+00 9.888132e-01 1.106651e+00 1.514400e+00 1.391029e+00 8.542261e-01 2.267001e+00
<GCONST> 9.838792e+01
<STATE> 3
<MEAN> 26
 -6.306700e+00 -8.752711e+00 1.823498e+01 -4.049736e+00 -1.989809e+01 -3.707761e+00 -8.695338e+00 -9.855412e+00 -1.022638e+01 -7.060513e+00 1.839073e+00 -6.317811e+00 5.923494e+01 5.138037e-01 2.429756e+00 -5.902665e-01 3.334433e+00 1.461382e+00 5.564275e-01 1.754803e+00 1.522717e-01 1.245159e+00 3.186883e-01 6.016644e-01 5.588802e-01 -4.336913e+00
<VARIANCE> 26
 1.247320e+01 8.091963e+01 4.858617e+01 1.003360e+02 4.439023e+01 2.399152e+01 4.383236e+01 4.274419e+01 3.073559e+01 4.609311e+01 7.074294e+01 3.421251e+01 7.818272e+01 1.062066e+00 1.935982e+00 2.530306e+00 3.606473e+00 3.711845e+00 4.170818e+00 3.846683e+00 4.626897e+00 2.617182e+00 3.983954e+00 5.930890e+00 2.505322e+00 3.070436e+00
<GCONST> 1.118223e+02
<STATE> 4
<MEAN> 26
 -1.128995e+01 7.949595e-01 5.408186e+00 2.242530e+00 -7.428150e+00 -2.776521e+00 -2.048607e+00 -2.275466e+00 -6.638055e-01 -2.346952e+00 6.639690e+00 -2.659234e+00 4.616871e+01 -4.015811e-01 -5.706370e-02 -6.491814e-01 1.785126e-02 7.044637e-01 4.010458e-02 4.898767e-01 4.502268e-01 2.133391e-01 7.035869e-02 1.724462e-01 1.796802e-01 -1.664752e-01
<VARIANCE> 26
 2.931933e+01 4.033394e+01 9.708966e+01 4.046842e+01 6.416190e+01 3.835542e+01 3.580359e+01 4.030999e+01 3.879999e+01 2.691495e+01 4.530386e+01 3.133241e+01 9.049186e+01 1.501679e+00 2.179760e+00 2.328537e+00 3.627643e+00 2.664352e+00 2.731189e+00 2.762328e+00 2.719883e+00 2.884435e+00 2.064289e+00 2.288913e+00 1.833007e+00 5.889804e+00
<GCONST> 1.092461e+02
<TRANSP> 5
 0.000000e+00 1.000000e+00 0.000000e+00 0.000000e+00 0.000000e+00
 0.000000e+00 9.563107e-01 4.368933e-02 0.000000e+00 0.000000e+00
 0.000000e+00 0.000000e+00 7.593583e-01 2.406417e-01 0.000000e+00
 0.000000e+00 0.000000e+00 0.000000e+00 9.142857e-01 8.571428e-02
 0.000000e+00 0.000000e+00 0.000000e+00 0.000000e+00 0.000000e+00
<ENDHMM>
