~o
<STREAMINFO> 1 26
<VECSIZE> 26<NULLD><MFCC_D_0><DIAGC>
~h "FIVE"
<BEGINHMM>
<NUMSTATES> 5
<STATE> 2
<MEAN> 26
 -1.042920e+01 -9.182490e+00 -8.670470e+00 -5.659820e+00 -3.906871e-01 2.022371e+00 8.570720e-02 -5.372725e+00 -2.978237e-02 -2.062351e+00 7.726015e-01 -5.183118e+00 6.170192e+01 1.054582e+00 -1.341780e+00 -7.772725e-01 -9.896402e-01 9.551615e-02 5.481812e-02 -3.245535e-01 -3.510175e-01 -2.102671e-01 -4.006382e-01 -8.607231e-01 -8.200711e-01 1.807234e+00
<VARIANCE> 26
 1.024930e+02 5.697818e+01 3.963348e+01 1.097916e+02 3.082122e+01 4.719791e+01 4.083489e+01 3.626035e+01 3.175901e+01 3.409454e+01 5.541262e+01 4.973492e+01 9.120557e+01 6.504546e+00 2.785489e+00 2.468313e+00 7.937364e+00 3.306840e+00 3.497650e+00 2.926300e+00 3.286129e+00 2.574072e+00 2.475194e+00 3.886734e+00 3.299952e+00 2.346939e+00
<GCONST> 1.146802e+02
<STATE> 3
<MEAN> 26
 -7.980658e+00 -1.402090e+01 1.280206e+00 -1.037203e+01 -1.249360e+01 -6.755755e+00 -3.231205e+00 -5.069759e+00 -6.304090e+00 -5.224175e+00 -3.793448e+00 -6.161614e+00 7.114020e+01 -2.122832e-01 6.131786e-01 1.456025e+00 1.734230e-01 -1.156229e+00 -7.035021e-01 -3.388852e-01 -1.326215e-01 -7.883285e-01 1.224518e-01 4.802755e-01 1.329704e-01 -3.748929e-01
<VARIANCE> 26
 1.235449e+01 7.326425e+01 1.292586e+02 4.795197e+01 1.380852e+02 5.545835e+01 6.480753e+01 8.607095e+01 6.636621e+01 7.278963e+01 8.746043e+01 5.846143e+01 1.339639e+01 2.895399e-01 1.095908e+00 1.608441e+00 1.593185e+00 3.092345e+00 1.633681e+00 2.699235e+00 3.968441e+00 2.098511e+00 2.920257e+00 2.746046e+00 1.982144e+00 3.040582e-01
<GCONST> 1.066132e+02
<STATE> 4
<MEAN> 26
 -9.915781e+00 -2.910301e+00 4.035630e+00 1.716935e+00 -5.633036e+00 -8.549832e+00 -5.311419e+00 -5.237989e+00 -6.223337e+00 -4.652929e+00 -2.299987e-02 -4.033321e+00 5.429500e+01 -3.510377e-01 4.653989e-01 -1.001843e+00 8.969336e-01 1.472511e+00 5.003667e-01 4.706851e-01 5.120420e-01 1.099040e+00 6.065725e-02 -6.580810e-02 3.671427e-01 -1.251406e+00
<VARIANCE> 26
 5.480547e+01 3.735215e+01 5.913015e+01 4.961568e+01 6.922713e+01 4.239629e+01 5.693435e+01 4.095012e+01 8.250790e+01 4.328130e+01 6.030401e+01 2.725876e+01 7.259660e+01 2.219688e+00 1.896854e+00 2.259002e+00 2.315381e+00 3.722887e+00 2.682859e+00 3.804611e+00 3.085570e+00 4.641056e+00 3.337764e+00 3.081915e+00 1.961701e+00 1.342238e+00
<GCONST> 1.116924e+02
<TRANSP> 5
 0.000000e+00 1.000000e+00 0.000000e+00 0.000000e+00 0.000000e+00
 0.000000e+00 9.089069e-01 9.109312e-02 0.000000e+00 0.000000e+00
 0.000000e+00 0.000000e+00 9.461722e-01 5.382776e-02 0.000000e+00
 0.000000e+00 0.000000e+00 0.000000e+00 9.229452e-01 7.705478e-02
 0.000000e+00 0.000000e+00 0.000000e+00 0.000000e+00 0.000000e+00
<ENDHMM>
