~o
<STREAMINFO> 1 26
<VECSIZE> 26<NULLD><MFCC_D_0><DIAGC>
~h "FOUR"
<BEGINHMM>
<NUMSTATES> 5
<STATE> 2
<MEAN> 26
 -1.443201e+01 -2.178982e+00 -4.768761e+00 -1.033302e+00 -2.062020e+00 1.261665e+00 -1.299320e+00 -2.943191e+00 -2.091089e+00 -1.698915e+00 1.426160e+00 -8.757281e-01 5.479139e+01 1.825440e+00 3.426057e-01 -2.832285e-01 -2.460824e+00 -1.487565e+00 3.297117e-01 -7.185452e-01 -3.774656e-01 -8.775656e-01 -5.617727e-01 -3.294898e-01 -3.084353e-01 1.365181e+00
<VARIANCE> 26
 9.484653e+01 2.509874e+01 2.117775e+01 1.179851e+02 5.168483e+01 2.674697e+01 2.791922e+01 2.767531e+01 4.253196e+01 3.321525e+01 2.242334e+01 2.555499e+01 5.234148e+01 6.600036e+00 1.631114e+00 2.075744e+00 1.013700e+01 5.230298e+00 3.447924e+00 3.060657e+00 2.646454e+00 3.876425e+00 3.507757e+00 2.519607e+00 2.385208e+00 1.182585e+00
<GCONST> 1.098047e+02
<STATE> 3
<MEAN> 26
 -1.487779e-01 5.047207e-01 -8.483498e+00 -2.470300e+01 -1.557369e+01 5.904255e+00 -7.042675e+00 -8.430383e+00 -6.280254e+00 -7.171405e+00 1.887534e+00 -3.808799e+00 6.632116e+01 -1.082809e-01 -1.494425e-01 -1.824331e-01 2.790551e-02 2.899766e-01 -1.723714e-02 -2.413986e-01 -3.314322e-01 2.223410e-02 3.000953e-01 3.787511e-01 -9.938630e-03 1.605922e-01
<VARIANCE> 26
 8.452344e+00 3.532151e+01 3.675969e+01 6.078143e+01 7.098861e+01 6.416411e+01 7.563169e+01 8.078375e+01 5.537969e+01 8.019083e+01 8.013561e+01 5.254949e+01 1.246262e+01 1.309726e-01 3.745196e-01 4.524659e-01 1.134889e+00 1.031197e+00 7.489750e-01 1.043012e+00 1.250883e+00 1.104360e+00 1.516624e+00 1.361338e+00 9.819152e-01 1.534896e-01
<GCONST> 9.286198e+01
<STATE> 4
<MEAN> 26
 -4.993015e+00 -5.355540e+00 -4.565202e+00 -2.686700e+00 -4.239973e+00 -4.673182e+00 -9.800624e+00 -7.697268e+00 -1.720846e-01 -2.223682e+00 1.105730e+00 -4.401322e+00 5.857922e+01 -5.005294e-01 -2.479692e-01 7.453609e-01 1.925480e+00 5.991759e-01 -5.385604e-01 5.168429e-01 7.177924e-01 8.515511e-01 -8.514892e-02 -2.121608e-01 1.802946e-01 -1.362082e+00
<VARIANCE> 26
 2.845455e+01 2.673144e+01 5.219228e+01 1.261559e+02 7.015774e+01 6.291845e+01 7.903434e+01 6.139711e+01 5.118203e+01 7.840492e+01 7.934577e+01 4.354266e+01 8.531252e+01 1.897619e+00 1.419436e+00 2.622143e+00 5.078466e+00 4.412696e+00 3.839031e+00 5.322766e+00 4.110655e+00 4.412653e+00 5.385728e+00 5.443062e+00 3.753759e+00 1.550289e+00
<GCONST> 1.171013e+02
<TRANSP> 5
 0.000000e+00 1.000000e+00 0.000000e+00 0.000000e+00 0.000000e+00
 0.000000e+00 9.064449e-01 9.355509e-02 0.000000e+00 0.000000e+00
 0.000000e+00 0.000000e+00 9.467456e-01 5.325444e-02 0.000000e+00
 0.000000e+00 0.000000e+00 0.000000e+00 9.276527e-01 7.234726e-02
 0.000000e+00 0.000000e+00 0.000000e+00 0.000000e+00 0.000000e+00
<ENDHMM>
