~o
<STREAMINFO> 1 26
<VECSIZE> 26<NULLD><MFCC_D_0><DIAGC>
~h "NINE"
<BEGINHMM>
<NUMSTATES> 5
<STATE> 2
<MEAN> 26
 -2.729056e+00 -4.363669e+00 3.006358e+00 1.599319e+00 -7.409253e+00 -9.047634e+00 -4.852414e+00 -7.673601e+00 -4.574885e+00 -6.359206e+00 -6.470584e+00 -5.025959e+00 5.789290e+01 -3.612527e-01 -2.164884e+00 -1.285550e+00 -1.466680e+00 5.747325e-01 8.272625e-01 -7.795084e-01 1.004704e+00 3.383760e-01 -9.158316e-01 -3.547643e-01 -9.082998e-02 2.493830e+00
<VARIANCE> 26
 2.127785e+01 8.100975e+01 4.480692e+01 6.736237e+01 8.571061e+01 8.558380e+01 9.980785e+01 7.416906e+01 7.732661e+01 8.215990e+01 6.080093e+01 6.566114e+01 7.751192e+01 1.361435e+00 3.739559e+00 2.916348e+00 3.263470e+00 4.977997e+00 6.792507e+00 3.931647e+00 7.621780e+00 4.260154e+00 3.675354e+00 3.082838e+00 2.646721e+00 2.207862e+00
<GCONST> 1.189025e+02
<STATE> 3
<MEAN> 26
 -7.462905e+00 -1.814043e+01 -4.297130e-01 -7.115579e+00 -7.554968e+00 -4.503519e-01 -3.790395e+00 -3.324508e+00 -4.483730e+00 -1.131392e+01 -4.893366e+00 -4.600378e+00 7.197832e+01 -1.878622e-01 5.603312e-01 1.242188e+00 -5.048295e-01 -1.068748e+00 9.567360e-02 2.645162e-01 -4.101125e-01 -5.247419e-01 5.437348e-01 4.065001e-01 -2.292493e-01 -2.488461e-01
<VARIANCE> 26
 8.689913e+00 3.066824e+01 9.036456e+01 4.500920e+01 1.176492e+02 4.315465e+01 5.598053e+01 5.726425e+01 9.822428e+01 5.990023e+01 5.221079e+01 4.432118e+01 8.364072e+00 1.575225e-01 1.394329e+00 1.910306e+00 1.256655e+00 2.194360e+00 1.289974e+00 1.919379e+00 2.328144e+00 1.438236e+00 2.015220e+00 1.908899e+00 1.454395e+00 4.879593e-01
<GCONST> 1.001020e+02
<STATE> 4
<MEAN> 26
 -4.753980e+00 1.551211e+00 7.932881e+00 -1.384635e+00 -9.555848e+00 -2.623768e+00 -5.045870e+00 -9.252188e+00 -9.595515e+00 -5.474741e+00 -2.084591e+00 -6.132448e+00 5.316740e+01 1.429452e-01 7.116236e-01 -4.586797e-01 1.206439e+00 9.499680e-01 -5.532357e-02 3.992675e-01 4.519495e-02 3.128700e-01 -2.814828e-02 2.113760e-02 2.717431e-01 -1.352554e+00
<VARIANCE> 26
 2.673793e+01 4.487989e+01 6.158466e+01 1.232682e+02 7.471434e+01 5.306063e+01 7.473962e+01 4.650986e+01 7.147932e+01 6.110674e+01 7.511765e+01 5.813692e+01 9.303111e+01 1.109160e+00 1.328946e+00 1.902950e+00 3.323514e+00 2.300686e+00 3.399360e+00 2.691072e+00 2.253138e+00 2.472755e+00 2.160280e+00 2.283195e+00 1.784338e+00 7.543323e-01
<GCONST> 1.104350e+02
<TRANSP> 5
 0.000000e+00 1.000000e+00 0.000000e+00 0.000000e+00 0.000000e+00
 0.000000e+00 8.872181e-01 1.127820e-01 0.000000e+00 0.000000e+00
 0.000000e+00 0.000000e+00 9.341142e-01 6.588580e-02 0.000000e+00
 0.000000e+00 0.000000e+00 0.000000e+00 9.443758e-01 5.562424e-02
 0.000000e+00 0.000000e+00 0.000000e+00 0.000000e+00 0.000000e+00
<ENDHMM>
