~o
<STREAMINFO> 1 26
<VECSIZE> 26<NULLD><MFCC_D_0><DIAGC>
~h "ONE"
<BEGINHMM>
<NUMSTATES> 5
<STATE> 2
<MEAN> 26
 -7.437036e-01 2.544405e-01 -4.767205e+00 -1.094077e+01 -2.950272e+00 3.674082e+00 -4.351351e+00 -7.351581e+00 -6.596562e+00 -4.787756e+00 5.075958e-01 -2.476039e+00 5.648699e+01 8.621916e-03 -1.371882e+00 -7.672800e-01 -1.375511e+00 2.279462e-01 3.905729e-01 -4.210923e-01 -1.465142e-01 3.854681e-01 1.374806e-01 -2.804096e-01 -3.802736e-01 1.855587e+00
<VARIANCE> 26
 4.013441e+01 5.251294e+01 3.234782e+01 1.497243e+02 5.989275e+01 6.764975e+01 7.414524e+01 4.410003e+01 4.857066e+01 5.861883e+01 4.971344e+01 4.875717e+01 8.711536e+01 1.602780e+00 2.618263e+00 1.666865e+00 5.297070e+00 3.812595e+00 2.842876e+00 2.801733e+00 2.913445e+00 2.805568e+00 3.210840e+00 3.638533e+00 3.590048e+00 1.629309e+00
<GCONST> 1.138883e+02
<STATE> 3
<MEAN> 26
 -4.460009e+00 -1.673218e+01 -9.928260e+00 -1.140263e+01 -4.703303e-01 3.593366e+00 -7.931983e+00 -5.698451e+00 -7.663513e-01 -7.842800e+00 -5.030207e+00 -9.105203e+00 7.173461e+01 -4.079640e-01 -4.243868e-01 5.966759e-01 1.083936e+00 -6.163197e-01 -1.029711e+00 -2.323217e-01 8.440138e-01 -3.109260e-02 -6.843055e-01 -4.393803e-01 9.565929e-02 1.634933e-01
<VARIANCE> 26
 8.886062e+00 3.015281e+01 2.054147e+01 5.514074e+01 7.902136e+01 8.194950e+01 7.376029e+01 6.572305e+01 4.806816e+01 6.533931e+01 8.664529e+01 7.102988e+01 8.517027e+00 2.111575e-01 7.727376e-01 9.903969e-01 1.513226e+00 2.224019e+00 1.782304e+00 1.902915e+00 2.037667e+00 1.440332e+00 1.484088e+00 2.265527e+00 1.976353e+00 3.106410e-01
<GCONST> 9.900285e+01
<STATE> 4
<MEAN> 26
 -4.138953e+00 -2.318378e+00 3.135761e+00 2.242852e+00 -6.862805e+00 -9.830878e+00 -4.272602e+00 -9.773249e+00 -8.262267e+00 -8.527544e+00 -5.456333e+00 -4.426281e+00 5.548919e+01 7.306894e-03 1.085610e+00 3.889710e-01 7.750908e-01 4.426308e-01 -1.444777e-02 5.500923e-01 -4.992014e-01 -9.680997e-02 3.375522e-01 1.470891e-01 2.340407e-01 -1.526138e+00
<VARIANCE> 26
 1.844066e+01 5.843370e+01 3.972755e+01 5.132949e+01 7.512016e+01 6.793494e+01 8.331414e+01 9.370820e+01 8.500377e+01 6.210887e+01 5.929816e+01 6.728725e+01 7.858847e+01 7.370374e-01 1.984619e+00 2.297790e+00 1.988429e+00 2.746085e+00 4.412577e+00 2.724270e+00 4.886417e+00 3.446211e+00 2.279589e+00 2.374726e+00 2.024626e+00 1.161835e+00
<GCONST> 1.118798e+02
<TRANSP> 5
 0.000000e+00 1.000000e+00 0.000000e+00 0.000000e+00 0.000000e+00
 0.000000e+00 9.115914e-01 8.840864e-02 0.000000e+00 0.000000e+00
 0.000000e+00 0.000000e+00 9.139580e-01 8.604206e-02 0.000000e+00
 0.000000e+00 0.000000e+00 0.000000e+00 9.438903e-01 5.610972e-02
 0.000000e+00 0.000000e+00 0.000000e+00 0.000000e+00 0.000000e+00
<ENDHMM>
