~o
<STREAMINFO> 1 26
<VECSIZE> 26<NULLD><MFCC_D_0><DIAGC>
~h "SEVEN"
<BEGINHMM>
<NUMSTATES> 5
<STATE> 2
<MEAN> 26
 -2.279146e+01 1.779520e+00 -4.904680e+00 2.232926e+00 6.205223e-02 -5.140966e+00 3.657896e+00 -2.171030e+00 1.187383e+00 -2.626208e+00 9.326693e-01 8.761155e-01 5.438018e+01 1.354017e+00 -8.112810e-01 2.939959e-01 -6.278028e-01 -1.312053e+00 -9.114266e-01 -7.660539e-01 -1.525288e-01 -1.673150e-01 -1.312907e-01 -4.955929e-01 -3.249162e-01 1.516348e+00
<VARIANCE> 26
 6.496164e+01 3.472345e+01 3.711899e+01 3.783971e+01 6.210298e+01 4.395639e+01 3.409755e+01 2.759353e+01 2.559347e+01 2.269628e+01 2.044153e+01 1.927027e+01 4.497274e+01 7.634491e+00 3.555218e+00 2.637514e+00 3.584257e+00 4.696369e+00 4.284479e+00 4.231308e+00 2.696602e+00 2.443993e+00 2.465894e+00 2.473830e+00 2.658926e+00 1.881827e+00
<GCONST> 1.089549e+02
<STATE> 3
<MEAN> 26
 -5.710740e+00 -1.403972e+01 -1.013127e+00 -8.094232e+00 -1.249412e+01 -1.035993e+01 -5.519212e+00 -1.460313e+00 -1.530226e+00 -5.432298e+00 -3.401769e+00 -7.226175e+00 7.019090e+01 4.106626e-02 -1.182595e-01 1.449221e-01 -6.484339e-02 -8.099075e-02 1.439215e-01 -1.809372e-01 1.144499e-02 -2.649587e-01 -2.241080e-01 9.006509e-02 -1.313680e-01 -9.337952e-03
<VARIANCE> 26
 1.473557e+01 3.820409e+01 3.517860e+01 4.524543e+01 4.341742e+01 8.247009e+01 7.933041e+01 5.011177e+01 6.217392e+01 5.562231e+01 5.499399e+01 5.550599e+01 1.836979e+01 5.882429e-01 2.018342e+00 8.639063e-01 2.435678e+00 2.449924e+00 2.174110e+00 3.098753e+00 3.566016e+00 1.856987e+00 2.099322e+00 1.833474e+00 1.645520e+00 2.067379e+00
<GCONST> 1.052265e+02
<STATE> 4
<MEAN> 26
 -4.298747e+00 -6.330703e-01 4.531453e+00 2.571978e+00 -8.734727e+00 -9.540166e+00 -3.632197e+00 -8.567286e+00 -9.330274e+00 -6.577404e+00 -3.903995e+00 -4.148568e+00 5.248371e+01 1.650774e-02 8.895347e-01 6.646787e-02 9.149643e-01 7.446985e-01 3.787005e-01 5.447978e-01 -1.371825e-01 1.425516e-01 3.915986e-01 -8.986793e-02 2.752325e-01 -1.541067e+00
<VARIANCE> 26
 2.412541e+01 3.789470e+01 3.997888e+01 4.152652e+01 6.388010e+01 4.780357e+01 6.246874e+01 7.585452e+01 1.133804e+02 6.602288e+01 6.366468e+01 7.105716e+01 7.029122e+01 9.983796e-01 1.825759e+00 1.463638e+00 2.133016e+00 2.299731e+00 2.877149e+00 2.909412e+00 4.654343e+00 3.780813e+00 2.393698e+00 2.882074e+00 2.031830e+00 1.524962e+00
<GCONST> 1.107221e+02
<TRANSP> 5
 0.000000e+00 1.000000e+00 0.000000e+00 0.000000e+00 0.000000e+00
 0.000000e+00 9.163569e-01 8.364312e-02 0.000000e+00 0.000000e+00
 0.000000e+00 0.000000e+00 9.617997e-01 3.820034e-02 0.000000e+00
 0.000000e+00 0.000000e+00 0.000000e+00 9.300156e-01 6.998445e-02
 0.000000e+00 0.000000e+00 0.000000e+00 0.000000e+00 0.000000e+00
<ENDHMM>
