~o
<STREAMINFO> 1 26
<VECSIZE> 26<NULLD><MFCC_D_0><DIAGC>
~h "SIX"
<BEGINHMM>
<NUMSTATES> 5
<STATE> 2
<MEAN> 26
 -2.549360e+01 2.943237e+00 -5.468417e+00 3.259408e+00 2.118600e+00 -3.307045e+00 5.359771e+00 -1.199435e+00 1.089333e+00 -2.176816e+00 1.579386e+00 1.459809e+00 5.329515e+01 3.963596e-01 -4.559486e-02 1.276767e-01 -1.622717e-01 -8.161904e-01 -5.394045e-01 -3.591316e-01 -3.898086e-01 -2.387820e-01 -1.726334e-01 -1.057231e-01 -6.247568e-02 9.749061e-01
<VARIANCE> 26
 2.996033e+01 3.026105e+01 2.905032e+01 3.228332e+01 4.412066e+01 3.042859e+01 2.566768e+01 2.836595e+01 2.663139e+01 2.270555e+01 1.488408e+01 1.499752e+01 3.373104e+01 4.505725e+00 1.302735e+00 2.069392e+00 1.395059e+00 3.086101e+00 3.365101e+00 2.504455e+00 2.143603e+00 1.900775e+00 2.000012e+00 1.551053e+00 1.377819e+00 7.231936e-01
<GCONST> 9.918385e+01
<STATE> 3
<MEAN> 26
 -9.178818e+00 -5.969873e+00 7.552947e+00 -1.455918e+00 -1.577555e+01 -1.046087e+01 -3.944729e+00 -5.971982e+00 -6.166612e+00 -2.918120e+00 3.634582e+00 -4.271080e+00 5.796717e+01 -1.225153e-02 -3.036048e-01 -2.704853e-01 1.386458e-01 2.259949e-01 1.782470e-01 -7.063178e-02 1.035578e-01 1.390697e-01 9.450162e-02 4.523306e-02 -1.260009e-02 -1.400016e-01
<VARIANCE> 26
 1.716242e+01 5.193248e+01 8.856922e+01 8.749889e+01 9.028176e+01 5.766664e+01 4.785390e+01 3.792279e+01 6.770100e+01 5.887729e+01 8.569210e+01 4.360377e+01 1.827939e+02 4.274580e+00 4.391978e+00 7.736402e+00 5.343529e+00 8.652587e+00 4.269638e+00 4.798233e+00 3.364856e+00 4.868360e+00 3.397793e+00 4.742654e+00 3.174208e+00 1.083033e+01
<GCONST> 1.222642e+02
<STATE> 4
<MEAN> 26
 -2.426441e+01 7.764984e-01 -4.642621e+00 4.603172e+00 7.568191e-01 -5.699575e+00 4.411675e+00 -2.244067e-01 2.289062e+00 -3.140908e+00 1.547106e+00 1.040620e+00 5.533331e+01 -1.372185e-01 2.650266e-01 2.828678e-01 -8.827218e-02 1.232865e-01 2.746408e-03 1.920604e-01 1.237598e-01 4.251301e-02 -2.172221e-03 1.420707e-02 5.828867e-02 -3.319103e-01
<VARIANCE> 26
 3.927438e+01 2.750824e+01 2.364196e+01 2.466242e+01 4.078362e+01 4.094735e+01 2.904147e+01 2.504878e+01 3.084111e+01 2.784974e+01 2.556490e+01 1.829811e+01 4.617561e+01 2.384075e+00 1.510177e+00 1.723603e+00 1.052112e+00 1.527865e+00 1.893322e+00 2.084453e+00 1.799508e+00 1.826688e+00 1.613610e+00 1.383663e+00 1.358339e+00 1.070793e+00
<GCONST> 9.792528e+01
<TRANSP> 5
 0.000000e+00 1.000000e+00 0.000000e+00 0.000000e+00 0.000000e+00
 0.000000e+00 9.089069e-01 9.109312e-02 0.000000e+00 0.000000e+00
 0.000000e+00 0.000000e+00 9.561831e-01 4.381695e-02 0.000000e+00
 0.000000e+00 0.000000e+00 0.000000e+00 9.480969e-01 5.190312e-02
 0.000000e+00 0.000000e+00 0.000000e+00 0.000000e+00 0.000000e+00
<ENDHMM>
