~o
<STREAMINFO> 1 26
<VECSIZE> 26<NULLD><MFCC_D_0><DIAGC>
~h "THREE"
<BEGINHMM>
<NUMSTATES> 5
<STATE> 2
<MEAN> 26
 -1.167239e+01 -4.402200e+00 8.251867e+00 8.321425e-02 -8.154004e+00 -8.258863e+00 -2.673381e+00 -3.754522e+00 -4.582792e+00 -5.495979e+00 2.877265e+00 -1.327069e+00 6.218188e+01 6.034271e-01 -6.294887e-01 1.695427e+00 -4.737292e-01 -1.909466e+00 -2.132748e-01 -1.499495e+00 -8.015811e-01 -1.104129e+00 -3.527821e-01 -1.319201e-01 -8.099089e-01 8.960044e-01
<VARIANCE> 26
 3.347075e+01 4.753782e+01 6.881999e+01 4.776245e+01 1.028793e+02 3.945449e+01 7.015652e+01 3.615699e+01 5.731485e+01 3.715076e+01 3.906659e+01 3.573407e+01 4.012669e+01 2.615828e+00 3.370371e+00 2.654616e+00 4.188039e+00 5.967356e+00 4.689425e+00 4.025735e+00 3.480376e+00 4.067211e+00 3.740387e+00 4.668060e+00 2.851391e+00 2.960025e+00
<GCONST> 1.149515e+02
<STATE> 3
<MEAN> 26
 -1.183757e+01 -3.009257e+00 1.923035e+01 -8.533477e+00 -1.914816e+01 -3.978568e+00 -1.316197e+01 -1.586484e+01 -1.020130e+01 -8.225900e+00 -6.902279e-01 -7.363140e+00 6.582600e+01 -2.020985e-01 5.683408e-01 -2.800850e-02 -1.700900e-01 3.328931e-01 2.732909e-01 -7.773960e-02 -5.082303e-01 1.068619e-01 -2.200369e-01 -3.726531e-01 1.413133e-01 -3.032374e-01
<VARIANCE> 26
 1.026516e+01 4.297038e+01 4.239029e+01 8.770396e+01 3.790744e+01 3.559746e+01 3.611261e+01 3.510623e+01 4.021421e+01 5.591158e+01 1.340066e+02 5.339714e+01 1.367485e+01 2.287007e-01 4.313612e-01 3.657563e-01 6.097625e-01 7.123458e-01 6.134945e-01 8.416196e-01 8.277250e-01 9.124336e-01 1.035684e+00 1.081896e+00 8.196514e-01 1.676220e-01
<GCONST> 8.868791e+01
<STATE> 4
<MEAN> 26
 -1.107657e+01 3.971969e+00 1.388430e+01 -4.660151e+00 -9.870851e+00 -1.041632e+00 -6.176554e+00 -1.395963e+01 -7.519138e+00 -6.480151e+00 -2.989012e+00 -1.585310e+00 5.383295e+01 1.478344e-01 3.945895e-01 -7.305481e-01 7.560728e-01 1.198108e+00 4.683974e-01 1.128423e+00 7.197028e-01 6.742439e-01 6.156785e-01 2.400494e-01 4.900056e-01 -1.749676e+00
<VARIANCE> 26
 1.636322e+01 2.899025e+01 6.560254e+01 8.682797e+01 7.354950e+01 3.344194e+01 7.991319e+01 7.430168e+01 6.564922e+01 4.375152e+01 8.389477e+01 4.956485e+01 7.146037e+01 7.618468e-01 2.315155e+00 1.690954e+00 1.635119e+00 3.136692e+00 2.417922e+00 3.647484e+00 2.375325e+00 3.091477e+00 2.216822e+00 3.017767e+00 2.081694e+00 1.010309e+00
<GCONST> 1.091984e+02
<TRANSP> 5
 0.000000e+00 1.000000e+00 0.000000e+00 0.000000e+00 0.000000e+00
 0.000000e+00 9.141222e-01 8.587786e-02 0.000000e+00 0.000000e+00
 0.000000e+00 0.000000e+00 9.391069e-01 6.089310e-02 0.000000e+00
 0.000000e+00 0.000000e+00 0.000000e+00 8.946136e-01 1.053864e-01
 0.000000e+00 0.000000e+00 0.000000e+00 0.000000e+00 0.000000e+00
<ENDHMM>
