~o
<STREAMINFO> 1 26
<VECSIZE> 26<NULLD><MFCC_D_0><DIAGC>
~h "TWO"
<BEGINHMM>
<NUMSTATES> 5
<STATE> 2
<MEAN> 26
 -4.584578e+00 -3.497025e+00 -1.807183e+00 -5.235744e+00 -6.098197e+00 -4.339929e+00 -1.522038e+01 -1.082162e+01 -7.218285e+00 -1.862338e+00 3.912711e+00 -6.480522e+00 6.302312e+01 1.020514e+00 5.555909e-01 -1.189582e+00 -2.386382e+00 -1.929455e-01 1.067365e+00 -6.389353e-01 -1.333477e+00 -2.522128e+00 -3.990826e-01 -8.939961e-02 -2.139269e-01 6.511607e-01
<VARIANCE> 26
 3.223995e+01 3.395626e+01 4.139977e+01 9.882211e+01 4.724640e+01 9.031401e+01 1.092513e+02 7.158211e+01 8.009368e+01 5.671331e+01 1.193553e+02 6.532940e+01 7.373346e+01 1.671034e+00 3.508317e+00 3.454615e+00 2.815629e+00 2.939604e+00 9.002163e+00 1.100609e+01 5.213069e+00 4.117034e+00 6.067825e+00 7.339317e+00 5.416165e+00 6.909025e+00
<GCONST> 1.223085e+02
<STATE> 3
<MEAN> 26
 5.390907e-01 4.426281e+00 -5.531598e+00 -1.582986e+01 -1.312387e+01 3.752184e+00 -9.603214e+00 -1.234816e+01 -1.548518e+01 -1.475885e+01 2.437401e+00 -6.393374e+00 6.164664e+01 9.317052e-02 3.778513e-01 8.836735e-02 -2.045599e-01 -2.684302e-01 -7.440979e-02 3.785713e-01 4.567669e-01 1.169900e-01 -5.136906e-01 -4.558988e-01 -1.058058e-01 -3.643226e-01
<VARIANCE> 26
 1.083634e+01 2.874494e+01 3.949927e+01 5.392622e+01 4.623047e+01 6.119242e+01 6.525986e+01 6.643555e+01 4.830847e+01 5.766619e+01 1.036116e+02 4.719730e+01 1.803459e+01 1.724688e-01 3.697655e-01 5.816036e-01 8.263817e-01 1.055599e+00 9.090349e-01 1.383906e+00 1.280434e+00 1.403657e+00 2.160965e+00 1.514566e+00 1.119172e+00 1.655642e-01
<GCONST> 9.371661e+01
<STATE> 4
<MEAN> 26
 -1.685786e+00 5.389503e+00 -3.642334e+00 -6.775315e+00 -6.592754e+00 -8.172533e-01 -3.210686e+00 -6.870376e+00 -9.216659e+00 -9.919644e+00 -1.077061e+00 -4.448631e+00 5.082580e+01 -5.135186e-01 -2.419199e-01 2.663713e-01 1.674901e+00 1.022819e+00 -2.269348e-01 6.717027e-01 2.809891e-01 9.222887e-01 1.109918e+00 1.912958e-01 5.788769e-01 -1.492388e+00
<VARIANCE> 26
 2.762978e+01 2.110987e+01 2.828200e+01 6.536246e+01 5.514725e+01 4.897390e+01 5.937756e+01 5.723231e+01 5.316145e+01 5.483488e+01 7.553925e+01 3.167057e+01 5.711728e+01 9.043480e-01 2.093565e+00 1.497636e+00 2.678691e+00 3.708073e+00 3.027270e+00 4.681941e+00 3.069632e+00 2.643169e+00 3.014724e+00 3.088541e+00 2.096474e+00 8.584681e-01
<GCONST> 1.084126e+02
<TRANSP> 5
 0.000000e+00 1.000000e+00 0.000000e+00 0.000000e+00 0.000000e+00
 0.000000e+00 8.442907e-01 1.557093e-01 0.000000e+00 0.000000e+00
 0.000000e+00 0.000000e+00 9.426020e-01 5.739795e-02 0.000000e+00
 0.000000e+00 0.000000e+00 0.000000e+00 8.857868e-01 1.142132e-01
 0.000000e+00 0.000000e+00 0.000000e+00 0.000000e+00 0.000000e+00
<ENDHMM>
