~o
<STREAMINFO> 1 26
<VECSIZE> 26<NULLD><MFCC_D_0><DIAGC>
~h "ZERO"
<BEGINHMM>
<NUMSTATES> 5
<STATE> 2
<MEAN> 26
 -1.598333e+01 7.688129e+00 2.634287e+00 4.645236e+00 2.224936e+00 -1.037519e+01 -3.566060e-01 -4.646369e+00 -4.338413e+00 -4.706239e+00 -2.201588e+00 -6.628935e-01 5.601583e+01 9.569070e-02 -3.915492e-01 6.959754e-01 2.392136e-02 -1.273178e+00 -5.228379e-01 -1.807323e-01 -5.621077e-01 -6.946868e-01 -1.614126e-01 3.235766e-01 -2.775464e-02 1.290201e+00
<VARIANCE> 26
 3.876678e+01 3.964395e+01 4.130630e+01 3.138406e+01 5.560168e+01 6.027973e+01 3.104476e+01 3.168339e+01 3.671554e+01 2.620224e+01 2.179801e+01 2.690021e+01 4.390185e+01 3.278483e+00 3.319323e+00 3.339675e+00 2.402840e+00 4.977385e+00 3.192283e+00 3.139263e+00 2.968592e+00 2.999095e+00 2.336040e+00 2.468179e+00 2.611846e+00 1.188561e+00
<GCONST> 1.077735e+02
<STATE> 3
<MEAN> 26
 -7.531104e+00 -4.660604e+00 1.016801e+01 -9.008996e-01 -1.750513e+01 -9.081645e+00 -1.156679e+01 -1.042055e+01 -7.401872e+00 -7.090136e+00 2.045538e+00 -7.264331e+00 6.601968e+01 6.352674e-01 -6.456985e-01 -9.244894e-01 -5.777065e-01 -2.124350e-01 7.993863e-01 -1.084994e+00 -1.417025e-02 6.726788e-01 3.698502e-01 2.222077e-01 -4.913471e-01 2.397855e-01
<VARIANCE> 26
 1.673528e+01 5.447165e+01 7.344356e+01 7.939388e+01 4.036500e+01 4.321804e+01 6.704577e+01 5.497290e+01 9.740224e+01 9.023849e+01 8.826793e+01 3.738385e+01 1.757132e+01 8.213708e-01 1.672278e+00 4.400416e+00 3.580774e+00 6.340268e+00 5.060735e+00 4.872436e+00 4.445607e+00 4.508758e+00 5.281859e+00 5.908529e+00 3.317835e+00 1.014936e+00
<GCONST> 1.147760e+02
<STATE> 4
<MEAN> 26
 -1.026261e+00 -4.575865e-01 -8.641847e+00 -1.516251e+01 -7.465735e+00 3.949137e+00 -8.357136e+00 -8.284808e+00 -6.498293e+00 -4.230493e+00 4.330431e+00 -3.797890e+00 5.908661e+01 -1.420401e-01 6.191921e-01 6.142231e-02 4.529418e-02 6.597923e-01 1.886345e-01 1.106374e+00 2.474890e-01 -2.876390e-01 -3.022009e-01 -1.166815e-01 5.619236e-01 -1.183004e+00
<VARIANCE> 26
 2.149769e+01 3.631840e+01 4.138726e+01 1.103137e+02 7.081641e+01 6.137315e+01 1.043793e+02 5.092870e+01 4.907123e+01 6.567062e+01 8.927824e+01 4.803009e+01 9.307423e+01 7.858899e-01 1.214971e+00 1.396727e+00 6.306565e+00 2.638523e+00 2.166023e+00 2.660662e+00 2.605843e+00 3.653672e+00 3.137941e+00 3.415982e+00 2.682186e+00 1.080911e+00
<GCONST> 1.113430e+02
<TRANSP> 5
 0.000000e+00 1.000000e+00 0.000000e+00 0.000000e+00 0.000000e+00
 0.000000e+00 9.121094e-01 8.789063e-02 0.000000e+00 0.000000e+00
 0.000000e+00 0.000000e+00 9.445130e-01 5.548705e-02 0.000000e+00
 0.000000e+00 0.000000e+00 0.000000e+00 9.483352e-01 5.166475e-02
 0.000000e+00 0.000000e+00 0.000000e+00 0.000000e+00 0.000000e+00
<ENDHMM>
