~o
<STREAMINFO> 1 26
<VECSIZE> 26<NULLD><MFCC_D_0><DIAGC>
~h "EIGHT"
<BEGINHMM>
<NUMSTATES> 5
<STATE> 2
<MEAN> 26
 -9.565705e+00 -8.939179e+00 1.409911e+01 -1.166339e+01 -2.184549e+01 -8.057386e+00 -9.752713e+00 -6.414914e+00 -7.830167e+00 -3.739443e-01 4.041704e+00 -5.242814e+00 6.785066e+01 1.014793e-01 -3.642191e-01 3.737428e-01 -2.653480e-01 -1.849684e-01 -3.157474e-02 -3.026727e-01 -1.408651e-01 -2.638168e-01 -3.089275e-01 -1.123474e-01 -1.872647e-01 4.969889e-01
<VARIANCE> 26
 1.196043e+01 5.047453e+01 3.240715e+01 8.906031e+01 4.353682e+01 2.382541e+01 4.168363e+01 4.076278e+01 4.829795e+01 7.051899e+01 1.138005e+02 4.447704e+01 4.249934e+01 4.823930e-01 6.615937e-01 8.892890e-01 1.953904e+00 1.255662e+00 1.259759e+00 1.085647e+00 9.902344e-01 1.107634e+00 1.512776e+00 1.396334e+00 8.554966e-01 2.266852e+00
<GCONST> 9.840368e+01
<STATE> 3
<MEAN> 26
 -6.104363e+00 -7.912868e+00 1.835746e+01 -3.134938e+00 -1.976964e+01 -3.933388e+00 -8.537181e+00 -9.207747e+00 -9.858385e+00 -6.537450e+00 3.055883e+00 -6.052398e+00 5.738656e+01 3.539732e-01 2.277150e+00 -6.796030e-01 2.958843e+00 1.361333e+00 3.622220e-01 1.518062e+00 2.255552e-01 1.192477e+00 4.018223e-01 6.677300e-01 4.937287e-01 -4.149251e+00
<VARIANCE> 26
 1.286899e+01 8.128712e+01 4.940787e+01 9.702578e+01 4.320550e+01 2.384983e+01 3.986365e+01 4.389905e+01 3.036241e+01 4.603131e+01 7.960082e+01 3.480667e+01 9.751824e+01 1.250192e+00 1.984751e+00 2.575774e+00 4.544882e+00 3.958354e+00 4.482333e+00 4.181131e+00 4.429746e+00 2.507473e+00 3.839035e+00 5.525132e+00 2.383026e+00 3.187545e+00
<GCONST> 1.125325e+02
<STATE> 4
<MEAN> 26
 -1.162670e+01 9.229257e-01 4.722790e+00 2.193370e+00 -6.846414e+00 -2.628450e+00 -1.773356e+00 -2.161319e+00 -3.374695e-01 -2.304491e+00 6.375308e+00 -2.576834e+00 4.628738e+01 -3.790045e-01 -1.186961e-01 -6.142788e-01 8.042094e-03 7.119323e-01 9.439180e-02 5.261223e-01 4.360079e-01 1.838729e-01 2.129011e-02 1.207374e-01 1.856094e-01 -3.727233e-02
<VARIANCE> 26
 2.777362e+01 3.992880e+01 8.937280e+01 4.094123e+01 5.863037e+01 3.885430e+01 3.555202e+01 4.071998e+01 3.760514e+01 2.670139e+01 4.347312e+01 3.088824e+01 9.321738e+01 1.518596e+00 2.169818e+00 2.298548e+00 3.668718e+00 2.534478e+00 2.575861e+00 2.717920e+00 2.716198e+00 2.934965e+00 2.008967e+00 2.232613e+00 1.863510e+00 5.749423e+00
<GCONST> 1.088079e+02
<TRANSP> 5
 0.000000e+00 1.000000e+00 0.000000e+00 0.000000e+00 0.000000e+00
 0.000000e+00 9.563261e-01 4.367397e-02 0.000000e+00 0.000000e+00
 0.000000e+00 0.000000e+00 7.876675e-01 2.123325e-01 0.000000e+00
 0.000000e+00 0.000000e+00 0.000000e+00 9.099476e-01 9.005246e-02
 0.000000e+00 0.000000e+00 0.000000e+00 0.000000e+00 0.000000e+00
<ENDHMM>
