~o
<STREAMINFO> 1 26
<VECSIZE> 26<NULLD><MFCC_D_0><DIAGC>
~h "FIVE"
<BEGINHMM>
<NUMSTATES> 5
<STATE> 2
<MEAN> 26
 -1.179306e+01 -7.390634e+00 -7.520375e+00 -4.831979e+00 -6.860736e-01 1.388617e+00 -2.133166e-01 -4.478098e+00 -1.500690e-01 -1.096130e+00 1.276074e+00 -4.038764e+00 5.973916e+01 1.351734e+00 -1.334939e+00 -9.886191e-01 -1.475885e+00 -2.718394e-02 2.790304e-01 -4.092497e-01 -5.188632e-01 -2.954352e-01 -3.043475e-01 -7.480007e-01 -1.064139e+00 2.051072e+00
<VARIANCE> 26
 1.102724e+02 4.343579e+01 3.557450e+01 1.207468e+02 3.133013e+01 4.298969e+01 3.609602e+01 3.321567e+01 2.807094e+01 2.898697e+01 5.147063e+01 4.472713e+01 8.381525e+01 7.176648e+00 3.229004e+00 2.575093e+00 7.814392e+00 3.567010e+00 3.515500e+00 3.136673e+00 3.210085e+00 2.853223e+00 2.550958e+00 4.225415e+00 3.343055e+00 2.390976e+00
<GCONST> 1.142787e+02
<STATE> 3
<MEAN> 26
 -7.549016e+00 -1.465209e+01 -5.929846e-01 -1.037917e+01 -1.103331e+01 -5.523791e+00 -2.617265e+00 -5.304884e+00 -5.391387e+00 -5.528759e+00 -3.758075e+00 -6.596041e+00 7.139154e+01 -2.637605e-01 4.554789e-01 1.406042e+00 2.441273e-01 -1.053417e+00 -7.362585e-01 -3.153007e-01 -1.096710e-01 -6.646761e-01 6.864096e-02 3.071689e-01 1.827762e-01 -2.740925e-01
<VARIANCE> 26
 1.339207e+01 6.914201e+01 1.354966e+02 4.623103e+01 1.445784e+02 6.747918e+01 6.657671e+01 8.242197e+01 6.638333e+01 6.772226e+01 8.370435e+01 5.911024e+01 1.181848e+01 2.645596e-01 1.378901e+00 1.540582e+00 1.648414e+00 3.180135e+00 1.690651e+00 2.659091e+00 3.941189e+00 2.046117e+00 2.912009e+00 2.980814e+00 1.922927e+00 3.600561e-01
<GCONST> 1.070057e+02
<STATE> 4
<MEAN> 26
 -9.853196e+00 -3.075480e+00 4.547740e+00 1.236171e+00 -6.278505e+00 -8.677298e+00 -5.471412e+00 -5.533765e+00 -6.647974e+00 -4.475513e+00 1.296020e-02 -4.144888e+00 5.478517e+01 -3.047535e-01 4.400632e-01 -9.675961e-01 9.376567e-01 1.450928e+00 4.410691e-01 4.588062e-01 5.342795e-01 9.671319e-01 7.868128e-03 -4.173835e-02 3.242143e-01 -1.236634e+00
<VARIANCE> 26
 5.273785e+01 3.862493e+01 6.329436e+01 5.466624e+01 7.570500e+01 4.183129e+01 5.607265e+01 4.339439e+01 8.455659e+01 4.652462e+01 6.398870e+01 2.768437e+01 7.470140e+01 2.176459e+00 1.845350e+00 2.243360e+00 2.278789e+00 3.605752e+00 2.668156e+00 3.685613e+00 3.015976e+00 4.877159e+00 3.305187e+00 3.046690e+00 1.968789e+00 1.292639e+00
<GCONST> 1.120035e+02
<TRANSP> 5
 0.000000e+00 1.000000e+00 0.000000e+00 0.000000e+00 0.000000e+00
 0.000000e+00 8.912376e-01 1.087624e-01 0.000000e+00 0.000000e+00
 0.000000e+00 0.000000e+00 9.493498e-01 5.065022e-02 0.000000e+00
 0.000000e+00 0.000000e+00 0.000000e+00 9.264463e-01 7.355367e-02
 0.000000e+00 0.000000e+00 0.000000e+00 0.000000e+00 0.000000e+00
<ENDHMM>
