~o
<STREAMINFO> 1 26
<VECSIZE> 26<NULLD><MFCC_D_0><DIAGC>
~h "FOUR"
<BEGINHMM>
<NUMSTATES> 5
<STATE> 2
<MEAN> 26
 -1.440615e+01 -2.183973e+00 -4.776162e+00 -1.043495e+00 -2.086184e+00 1.281396e+00 -1.297745e+00 -2.956819e+00 -2.103768e+00 -1.712639e+00 1.436436e+00 -8.724368e-01 5.479775e+01 1.822532e+00 3.415784e-01 -2.835417e-01 -2.460784e+00 -1.488477e+00 3.317829e-01 -7.163697e-01 -3.807955e-01 -8.769138e-01 -5.667353e-01 -3.270957e-01 -3.069720e-01 1.365552e+00
<VARIANCE> 26
 9.523974e+01 2.502342e+01 2.119771e+01 1.178053e+02 5.207251e+01 2.682456e+01 2.798455e+01 2.775695e+01 4.264212e+01 3.336358e+01 2.244169e+01 2.554473e+01 5.229719e+01 6.599577e+00 1.630505e+00 2.071747e+00 1.012463e+01 5.227837e+00 3.439741e+00 3.061956e+00 2.648435e+00 3.870593e+00 3.497876e+00 2.513900e+00 2.381036e+00 1.181015e+00
<GCONST> 1.098126e+02
<STATE> 3
<MEAN> 26
 -1.590354e-01 5.032367e-01 -8.477390e+00 -2.470748e+01 -1.558181e+01 5.903664e+00 -7.056160e+00 -8.416836e+00 -6.289972e+00 -7.165957e+00 1.880089e+00 -3.813259e+00 6.631806e+01 -1.081847e-01 -1.469779e-01 -1.827170e-01 3.303218e-02 2.886023e-01 -1.786796e-02 -2.420359e-01 -3.262023e-01 2.239937e-02 3.008039e-01 3.779337e-01 -9.945622e-03 1.590665e-01
<VARIANCE> 26
 8.463954e+00 3.533469e+01 3.677666e+01 6.092678e+01 7.099267e+01 6.426791e+01 7.556475e+01 8.083785e+01 5.556836e+01 8.043107e+01 8.028582e+01 5.258216e+01 1.241117e+01 1.315063e-01 3.718583e-01 4.535739e-01 1.154547e+00 1.018823e+00 7.496239e-01 1.040738e+00 1.252303e+00 1.107345e+00 1.501664e+00 1.370152e+00 9.839877e-01 1.525028e-01
<GCONST> 9.287196e+01
<STATE> 4
<MEAN> 26
 -4.983738e+00 -5.344499e+00 -4.573066e+00 -2.703924e+00 -4.227770e+00 -4.678806e+00 -9.787429e+00 -7.710552e+00 -1.557934e-01 -2.227601e+00 1.108628e+00 -4.400178e+00 5.859261e+01 -4.999918e-01 -2.509251e-01 7.456762e-01 1.919939e+00 6.032308e-01 -5.394059e-01 5.161224e-01 7.128541e-01 8.512841e-01 -8.131339e-02 -2.119971e-01 1.793604e-01 -1.360734e+00
<VARIANCE> 26
 2.850957e+01 2.687216e+01 5.224533e+01 1.264227e+02 6.987319e+01 6.270607e+01 7.914154e+01 6.142693e+01 5.070348e+01 7.812568e+01 7.919228e+01 4.351351e+01 8.551287e+01 1.896239e+00 1.421865e+00 2.620306e+00 5.065340e+00 4.418141e+00 3.838402e+00 5.323345e+00 4.114311e+00 4.409411e+00 5.405716e+00 5.434854e+00 3.752601e+00 1.552345e+00
<GCONST> 1.170950e+02
<TRANSP> 5
 0.000000e+00 1.000000e+00 0.000000e+00 0.000000e+00 0.000000e+00
 0.000000e+00 9.065551e-01 9.344488e-02 0.000000e+00 0.000000e+00
 0.000000e+00 0.000000e+00 9.466922e-01 5.330780e-02 0.000000e+00
 0.000000e+00 0.000000e+00 0.000000e+00 9.276841e-01 7.231587e-02
 0.000000e+00 0.000000e+00 0.000000e+00 0.000000e+00 0.000000e+00
<ENDHMM>
