~o
<STREAMINFO> 1 26
<VECSIZE> 26<NULLD><MFCC_D_0><DIAGC>
~h "NINE"
<BEGINHMM>
<NUMSTATES> 5
<STATE> 2
<MEAN> 26
 -2.762115e+00 -4.481397e+00 2.935571e+00 1.548390e+00 -7.392674e+00 -8.987076e+00 -4.887962e+00 -7.635602e+00 -4.543105e+00 -6.472255e+00 -6.430150e+00 -5.052611e+00 5.801102e+01 -3.628218e-01 -2.155937e+00 -1.285713e+00 -1.448183e+00 5.759549e-01 8.268819e-01 -7.592444e-01 9.829158e-01 3.413852e-01 -9.176083e-01 -3.456358e-01 -8.287840e-02 2.483186e+00
<VARIANCE> 26
 2.132165e+01 8.236504e+01 4.523143e+01 6.730712e+01 8.531096e+01 8.584550e+01 9.948518e+01 7.409086e+01 7.821341e+01 8.289208e+01 6.039994e+01 6.552539e+01 7.877863e+01 1.354187e+00 3.726301e+00 2.906061e+00 3.291875e+00 4.956670e+00 6.748596e+00 3.999983e+00 7.650064e+00 4.244125e+00 3.665665e+00 3.082213e+00 2.650060e+00 2.207002e+00
<GCONST> 1.189523e+02
<STATE> 3
<MEAN> 26
 -7.464728e+00 -1.814028e+01 -4.183148e-01 -7.103822e+00 -7.540777e+00 -4.631453e-01 -3.755038e+00 -3.333749e+00 -4.472197e+00 -1.129569e+01 -4.880543e+00 -4.580731e+00 7.198439e+01 -1.852710e-01 5.582800e-01 1.250055e+00 -5.064079e-01 -1.073784e+00 8.719716e-02 2.640397e-01 -3.973681e-01 -5.353627e-01 5.477723e-01 4.092103e-01 -2.302259e-01 -2.510167e-01
<VARIANCE> 26
 8.659099e+00 3.085614e+01 9.072237e+01 4.510925e+01 1.180947e+02 4.296941e+01 5.613111e+01 5.730165e+01 9.773151e+01 5.957671e+01 5.243989e+01 4.431934e+01 8.288792e+00 1.575483e-01 1.366683e+00 1.879398e+00 1.240310e+00 2.181987e+00 1.281671e+00 1.875656e+00 2.314378e+00 1.433048e+00 1.998958e+00 1.906550e+00 1.434833e+00 4.757487e-01
<GCONST> 9.995620e+01
<STATE> 4
<MEAN> 26
 -4.759669e+00 1.516581e+00 7.927943e+00 -1.414053e+00 -9.572681e+00 -2.606045e+00 -5.051455e+00 -9.234761e+00 -9.610019e+00 -5.465015e+00 -2.115057e+00 -6.131079e+00 5.319607e+01 1.415249e-01 7.188822e-01 -4.520870e-01 1.198660e+00 9.431625e-01 -5.050073e-02 3.932828e-01 3.904185e-02 3.152630e-01 -2.393976e-02 1.801419e-02 2.670572e-01 -1.353522e+00
<VARIANCE> 26
 2.674216e+01 4.527769e+01 6.143491e+01 1.233871e+02 7.466964e+01 5.320460e+01 7.450698e+01 4.670259e+01 7.138881e+01 6.119752e+01 7.525291e+01 5.808475e+01 9.326443e+01 1.106525e+00 1.343743e+00 1.921749e+00 3.345666e+00 2.317542e+00 3.402347e+00 2.702674e+00 2.258505e+00 2.461266e+00 2.165558e+00 2.282215e+00 1.796793e+00 7.536914e-01
<GCONST> 1.104927e+02
<TRANSP> 5
 0.000000e+00 1.000000e+00 0.000000e+00 0.000000e+00 0.000000e+00
 0.000000e+00 8.880781e-01 1.119219e-01 0.000000e+00 0.000000e+00
 0.000000e+00 0.000000e+00 9.336532e-01 6.634676e-02 0.000000e+00
 0.000000e+00 0.000000e+00 0.000000e+00 9.444916e-01 5.550842e-02
 0.000000e+00 0.000000e+00 0.000000e+00 0.000000e+00 0.000000e+00
<ENDHMM>
