~o
<STREAMINFO> 1 26
<VECSIZE> 26<NULLD><MFCC_D_0><DIAGC>
~h "ONE"
<BEGINHMM>
<NUMSTATES> 5
<STATE> 2
<MEAN> 26
 -7.374690e-01 2.114386e-01 -4.729435e+00 -1.091457e+01 -3.032758e+00 3.700098e+00 -4.388984e+00 -7.321114e+00 -6.583352e+00 -4.811441e+00 5.530761e-01 -2.549823e+00 5.649643e+01 7.228246e-03 -1.376402e+00 -7.694730e-01 -1.377335e+00 2.253930e-01 3.914919e-01 -4.167768e-01 -1.509395e-01 3.906889e-01 1.313963e-01 -2.790420e-01 -3.884407e-01 1.859399e+00
<VARIANCE> 26
 4.017046e+01 5.343020e+01 3.196872e+01 1.495539e+02 5.946204e+01 6.793507e+01 7.448260e+01 4.395440e+01 4.882163e+01 5.903348e+01 4.970898e+01 4.891839e+01 8.753168e+01 1.606509e+00 2.610169e+00 1.668939e+00 5.293695e+00 3.806960e+00 2.842008e+00 2.812421e+00 2.911301e+00 2.810999e+00 3.213687e+00 3.646195e+00 3.597138e+00 1.621926e+00
<GCONST> 1.139155e+02
<STATE> 3
<MEAN> 26
 -4.436091e+00 -1.664405e+01 -1.006566e+01 -1.146977e+01 -3.034565e-01 3.634020e+00 -7.859181e+00 -5.803652e+00 -7.867256e-01 -7.820735e+00 -5.069507e+00 -9.038679e+00 7.169711e+01 -4.152855e-01 -4.310630e-01 5.762083e-01 1.085918e+00 -5.953113e-01 -1.020737e+00 -2.261744e-01 8.403366e-01 -2.635613e-02 -6.777498e-01 -4.561518e-01 9.279031e-02 1.750448e-01
<VARIANCE> 26
 8.739264e+00 3.105659e+01 1.974668e+01 5.552896e+01 7.880719e+01 8.181886e+01 7.400644e+01 6.578347e+01 4.772067e+01 6.537125e+01 8.631805e+01 7.217637e+01 8.698523e+00 2.019405e-01 7.735156e-01 9.334269e-01 1.501773e+00 2.201132e+00 1.752035e+00 1.892455e+00 2.015145e+00 1.425073e+00 1.479045e+00 2.247639e+00 1.929289e+00 2.936480e-01
<GCONST> 9.875288e+01
<STATE> 4
<MEAN> 26
 -4.158310e+00 -2.441365e+00 3.109164e+00 2.171471e+00 -6.873353e+00 -9.776413e+00 -4.319942e+00 -9.696667e+00 -8.206857e+00 -8.519904e+00 -5.453256e+00 -4.452304e+00 5.561515e+01 1.013158e-02 1.081303e+00 4.041515e-01 7.757348e-01 4.236599e-01 -2.723782e-02 5.376941e-01 -4.849727e-01 -1.024008e-01 3.303118e-01 1.528476e-01 2.397389e-01 -1.522780e+00
<VARIANCE> 26
 1.845185e+01 6.020847e+01 3.956959e+01 5.185553e+01 7.484081e+01 6.808453e+01 8.329356e+01 9.410143e+01 8.534118e+01 6.195055e+01 5.938598e+01 6.718624e+01 8.024859e+01 7.348309e-01 1.973278e+00 2.326838e+00 1.994299e+00 2.796111e+00 4.432109e+00 2.734726e+00 4.902215e+00 3.435467e+00 2.290185e+00 2.371642e+00 2.044375e+00 1.156307e+00
<GCONST> 1.119827e+02
<TRANSP> 5
 0.000000e+00 1.000000e+00 0.000000e+00 0.000000e+00 0.000000e+00
 0.000000e+00 9.115080e-01 8.849199e-02 0.000000e+00 0.000000e+00
 0.000000e+00 0.000000e+00 9.130709e-01 8.692916e-02 0.000000e+00
 0.000000e+00 0.000000e+00 0.000000e+00 9.442942e-01 5.570584e-02
 0.000000e+00 0.000000e+00 0.000000e+00 0.000000e+00 0.000000e+00
<ENDHMM>
