~o
<STREAMINFO> 1 26
<VECSIZE> 26<NULLD><MFCC_D_0><DIAGC>
~h "SEVEN"
<BEGINHMM>
<NUMSTATES> 5
<STATE> 2
<MEAN> 26
 -2.278739e+01 1.776613e+00 -4.907695e+00 2.252936e+00 6.805666e-02 -5.132021e+00 3.654284e+00 -2.163112e+00 1.195555e+00 -2.621553e+00 9.338766e-01 8.686455e-01 5.437429e+01 1.354673e+00 -8.089565e-01 2.933601e-01 -6.221504e-01 -1.313809e+00 -9.076611e-01 -7.696198e-01 -1.506651e-01 -1.634042e-01 -1.323829e-01 -4.888054e-01 -3.259594e-01 1.515472e+00
<VARIANCE> 26
 6.512921e+01 3.481171e+01 3.711222e+01 3.740958e+01 6.199957e+01 4.373302e+01 3.422576e+01 2.749659e+01 2.569373e+01 2.267039e+01 2.046381e+01 1.942550e+01 4.480147e+01 7.637475e+00 3.541820e+00 2.637525e+00 3.553501e+00 4.706011e+00 4.276700e+00 4.232573e+00 2.698179e+00 2.450732e+00 2.473705e+00 2.460016e+00 2.665639e+00 1.878679e+00
<GCONST> 1.089403e+02
<STATE> 3
<MEAN> 26
 -5.717331e+00 -1.402689e+01 -9.946280e-01 -8.094910e+00 -1.251262e+01 -1.036138e+01 -5.548823e+00 -1.464557e+00 -1.566800e+00 -5.460870e+00 -3.393706e+00 -7.227177e+00 7.018211e+01 4.710671e-02 -1.085268e-01 1.493056e-01 -5.542339e-02 -7.210722e-02 1.367706e-01 -1.799152e-01 -3.758696e-03 -2.716258e-01 -2.201518e-01 7.849181e-02 -1.291867e-01 -2.382824e-02
<VARIANCE> 26
 1.475986e+01 3.817393e+01 3.519389e+01 4.526256e+01 4.356941e+01 8.235587e+01 7.926690e+01 5.005841e+01 6.245688e+01 5.593655e+01 5.497605e+01 5.555479e+01 1.836209e+01 5.990170e-01 2.052020e+00 8.806715e-01 2.484568e+00 2.463210e+00 2.197830e+00 3.101927e+00 3.601043e+00 1.873064e+00 2.102075e+00 1.865057e+00 1.652138e+00 2.114356e+00
<GCONST> 1.053931e+02
<STATE> 4
<MEAN> 26
 -4.279900e+00 -5.451537e-01 4.543937e+00 2.643585e+00 -8.674224e+00 -9.537559e+00 -3.558655e+00 -8.623559e+00 -9.331322e+00 -6.537384e+00 -3.923483e+00 -4.115158e+00 5.236084e+01 4.665605e-03 8.775994e-01 5.824787e-02 9.005816e-01 7.362760e-01 3.906088e-01 5.517117e-01 -1.117526e-01 1.549267e-01 3.901450e-01 -7.562687e-02 2.753264e-01 -1.525689e+00
<VARIANCE> 26
 2.412399e+01 3.705369e+01 4.008560e+01 4.087288e+01 6.339077e+01 4.784450e+01 6.214647e+01 7.585439e+01 1.136118e+02 6.562013e+01 6.372169e+01 7.093727e+01 6.889601e+01 9.776733e-01 1.807845e+00 1.436303e+00 2.106710e+00 2.281611e+00 2.846987e+00 2.891761e+00 4.603967e+00 3.751249e+00 2.389400e+00 2.855290e+00 2.018012e+00 1.503903e+00
<GCONST> 1.105122e+02
<TRANSP> 5
 0.000000e+00 1.000000e+00 0.000000e+00 0.000000e+00 0.000000e+00
 0.000000e+00 9.163490e-01 8.365101e-02 0.000000e+00 0.000000e+00
 0.000000e+00 0.000000e+00 9.619675e-01 3.803248e-02 0.000000e+00
 0.000000e+00 0.000000e+00 0.000000e+00 9.294509e-01 7.054917e-02
 0.000000e+00 0.000000e+00 0.000000e+00 0.000000e+00 0.000000e+00
<ENDHMM>
