~o
<STREAMINFO> 1 26
<VECSIZE> 26<NULLD><MFCC_D_0><DIAGC>
~h "SIX"
<BEGINHMM>
<NUMSTATES> 5
<STATE> 2
<MEAN> 26
 -2.552209e+01 2.936473e+00 -5.487049e+00 3.261235e+00 2.131960e+00 -3.293451e+00 5.364959e+00 -1.198148e+00 1.112051e+00 -2.163505e+00 1.574228e+00 1.474483e+00 5.326181e+01 3.776270e-01 -4.143546e-02 1.215084e-01 -1.576472e-01 -7.990739e-01 -5.249335e-01 -3.600210e-01 -3.855495e-01 -2.370766e-01 -1.743160e-01 -1.018705e-01 -6.137230e-02 9.721293e-01
<VARIANCE> 26
 2.980030e+01 3.035546e+01 2.892691e+01 3.229960e+01 4.419703e+01 3.021597e+01 2.571913e+01 2.836133e+01 2.644452e+01 2.269747e+01 1.490794e+01 1.498581e+01 3.347071e+01 4.411493e+00 1.298956e+00 2.062858e+00 1.359166e+00 3.015288e+00 3.303227e+00 2.515555e+00 2.143552e+00 1.901879e+00 1.990802e+00 1.546727e+00 1.379673e+00 7.214490e-01
<GCONST> 9.906157e+01
<STATE> 3
<MEAN> 26
 -9.187566e+00 -5.958626e+00 7.559045e+00 -1.458736e+00 -1.576720e+01 -1.046521e+01 -3.929206e+00 -5.968993e+00 -6.171824e+00 -2.920569e+00 3.624789e+00 -4.273654e+00 5.798254e+01 3.100859e-03 -3.053486e-01 -2.665763e-01 1.350911e-01 2.157662e-01 1.682435e-01 -7.211095e-02 9.997883e-02 1.352502e-01 9.542510e-02 4.209263e-02 -1.277832e-02 -1.378329e-01
<VARIANCE> 26
 1.727569e+01 5.208416e+01 8.838880e+01 8.744625e+01 9.033684e+01 5.760169e+01 4.783795e+01 3.795106e+01 6.755142e+01 5.886452e+01 8.559204e+01 4.348374e+01 1.827277e+02 4.307457e+00 4.391220e+00 7.733347e+00 5.359066e+00 8.706259e+00 4.311408e+00 4.785596e+00 3.367994e+00 4.862144e+00 3.399148e+00 4.736946e+00 3.175113e+00 1.082320e+01
<GCONST> 1.222860e+02
<STATE> 4
<MEAN> 26
 -2.425032e+01 7.755551e-01 -4.648948e+00 4.606786e+00 7.528104e-01 -5.694455e+00 4.397767e+00 -2.268016e-01 2.285379e+00 -3.143883e+00 1.560206e+00 1.039534e+00 5.532870e+01 -1.438113e-01 2.644993e-01 2.818018e-01 -8.698347e-02 1.237869e-01 5.208598e-03 1.934133e-01 1.246008e-01 4.545292e-02 -2.709503e-03 1.549246e-02 5.768729e-02 -3.304845e-01
<VARIANCE> 26
 3.935157e+01 2.744175e+01 2.360329e+01 2.463064e+01 4.078016e+01 4.102372e+01 2.926884e+01 2.503785e+01 3.097664e+01 2.782769e+01 2.565318e+01 1.836748e+01 4.611470e+01 2.408280e+00 1.510037e+00 1.731536e+00 1.054085e+00 1.524954e+00 1.893603e+00 2.091185e+00 1.798189e+00 1.833111e+00 1.616377e+00 1.391685e+00 1.355221e+00 1.079559e+00
<GCONST> 9.797462e+01
<TRANSP> 5
 0.000000e+00 1.000000e+00 0.000000e+00 0.000000e+00 0.000000e+00
 0.000000e+00 9.085936e-01 9.140643e-02 0.000000e+00 0.000000e+00
 0.000000e+00 0.000000e+00 9.562071e-01 4.379291e-02 0.000000e+00
 0.000000e+00 0.000000e+00 0.000000e+00 9.481636e-01 5.183638e-02
 0.000000e+00 0.000000e+00 0.000000e+00 0.000000e+00 0.000000e+00
<ENDHMM>
