~o
<STREAMINFO> 1 26
<VECSIZE> 26<NULLD><MFCC_D_0><DIAGC>
~h "THREE"
<BEGINHMM>
<NUMSTATES> 5
<STATE> 2
<MEAN> 26
 -1.166765e+01 -4.411054e+00 8.284263e+00 7.873406e-02 -8.196840e+00 -8.248721e+00 -2.687572e+00 -3.776023e+00 -4.599622e+00 -5.492073e+00 2.878319e+00 -1.340647e+00 6.219901e+01 5.982312e-01 -6.232201e-01 1.689968e+00 -4.757386e-01 -1.906890e+00 -2.109282e-01 -1.492845e+00 -8.030480e-01 -1.098457e+00 -3.475302e-01 -1.390609e-01 -8.092579e-01 8.937493e-01
<VARIANCE> 26
 3.339841e+01 4.747464e+01 6.902841e+01 4.775536e+01 1.032978e+02 3.953273e+01 7.008215e+01 3.626823e+01 5.714200e+01 3.725810e+01 3.915943e+01 3.570919e+01 4.011829e+01 2.618361e+00 3.376980e+00 2.659474e+00 4.182356e+00 5.956635e+00 4.680314e+00 4.033792e+00 3.473292e+00 4.063054e+00 3.750507e+00 4.664216e+00 2.843785e+00 2.954416e+00
<GCONST> 1.149561e+02
<STATE> 3
<MEAN> 26
 -1.182588e+01 -2.925055e+00 1.917471e+01 -8.515635e+00 -1.914651e+01 -3.940993e+00 -1.316174e+01 -1.591880e+01 -1.016625e+01 -8.282067e+00 -7.622677e-01 -7.375827e+00 6.579298e+01 -1.922576e-01 5.665658e-01 -2.522044e-02 -1.645265e-01 3.318544e-01 2.689874e-01 -7.768498e-02 -5.008333e-01 1.071027e-01 -2.136734e-01 -3.618213e-01 1.565104e-01 -3.081562e-01
<VARIANCE> 26
 1.031959e+01 4.393859e+01 4.293222e+01 8.728461e+01 3.762356e+01 3.559072e+01 3.615595e+01 3.552540e+01 4.088594e+01 5.589566e+01 1.344418e+02 5.290738e+01 1.375352e+01 2.314848e-01 4.267925e-01 3.635283e-01 6.104988e-01 7.167493e-01 6.139584e-01 8.524444e-01 8.270368e-01 9.278989e-01 1.024902e+00 1.103449e+00 8.366646e-01 1.742809e-01
<GCONST> 8.884579e+01
<STATE> 4
<MEAN> 26
 -1.109222e+01 3.945459e+00 1.389875e+01 -4.657705e+00 -9.717071e+00 -1.061243e+00 -6.089500e+00 -1.385061e+01 -7.538863e+00 -6.368450e+00 -2.911125e+00 -1.478729e+00 5.369985e+01 1.394466e-01 3.914152e-01 -7.453305e-01 7.638846e-01 1.217681e+00 4.777387e-01 1.143291e+00 7.281476e-01 6.795740e-01 6.110271e-01 2.382947e-01 4.709333e-01 -1.764340e+00
<VARIANCE> 26
 1.639853e+01 2.818882e+01 6.569890e+01 8.775098e+01 7.303246e+01 3.359946e+01 7.998517e+01 7.377576e+01 6.534427e+01 4.311213e+01 8.295127e+01 4.981031e+01 7.120870e+01 7.692456e-01 2.346482e+00 1.700671e+00 1.640830e+00 3.135085e+00 2.440694e+00 3.652566e+00 2.400471e+00 3.102471e+00 2.251902e+00 3.013218e+00 2.086057e+00 9.995968e-01
<GCONST> 1.092090e+02
<TRANSP> 5
 0.000000e+00 1.000000e+00 0.000000e+00 0.000000e+00 0.000000e+00
 0.000000e+00 9.143604e-01 8.563959e-02 0.000000e+00 0.000000e+00
 0.000000e+00 0.000000e+00 9.395114e-01 6.048864e-02 0.000000e+00
 0.000000e+00 0.000000e+00 0.000000e+00 8.930094e-01 1.069906e-01
 0.000000e+00 0.000000e+00 0.000000e+00 0.000000e+00 0.000000e+00
<ENDHMM>
