~o
<STREAMINFO> 1 26
<VECSIZE> 26<NULLD><MFCC_D_0><DIAGC>
~h "TWO"
<BEGINHMM>
<NUMSTATES> 5
<STATE> 2
<MEAN> 26
 -4.579709e+00 -3.482868e+00 -1.849664e+00 -5.277295e+00 -6.109592e+00 -4.372474e+00 -1.512818e+01 -1.082004e+01 -7.221687e+00 -1.899740e+00 3.841303e+00 -6.476891e+00 6.300536e+01 1.023008e+00 5.540560e-01 -1.185844e+00 -2.379862e+00 -1.992953e-01 1.067462e+00 -6.389480e-01 -1.326354e+00 -2.522286e+00 -4.011371e-01 -9.869824e-02 -2.054116e-01 6.503709e-01
<VARIANCE> 26
 3.231143e+01 3.403880e+01 4.188739e+01 9.926230e+01 4.741032e+01 9.035882e+01 1.103991e+02 7.119002e+01 7.895599e+01 5.706478e+01 1.200851e+02 6.525563e+01 7.366563e+01 1.668131e+00 3.505279e+00 3.467966e+00 2.822189e+00 2.941478e+00 9.002383e+00 1.099328e+01 5.244693e+00 4.131668e+00 6.082614e+00 7.344003e+00 5.443858e+00 6.910283e+00
<GCONST> 1.223551e+02
<STATE> 3
<MEAN> 26
 5.272473e-01 4.397093e+00 -5.506024e+00 -1.580384e+01 -1.311526e+01 3.777637e+00 -9.630198e+00 -1.237395e+01 -1.549232e+01 -1.472010e+01 2.486574e+00 -6.376749e+00 6.166904e+01 9.249029e-02 3.801693e-01 8.849508e-02 -2.079875e-01 -2.712967e-01 -7.111523e-02 3.825611e-01 4.538751e-01 1.182089e-01 -5.225675e-01 -4.579444e-01 -1.160815e-01 -3.620999e-01
<VARIANCE> 26
 1.086068e+01 2.866974e+01 3.934185e+01 5.405162e+01 4.641013e+01 6.076212e+01 6.520854e+01 6.636138e+01 4.879781e+01 5.769811e+01 1.031577e+02 4.702518e+01 1.797033e+01 1.712999e-01 3.657638e-01 5.791504e-01 8.382344e-01 1.050438e+00 9.037946e-01 1.380429e+00 1.271301e+00 1.406052e+00 2.128031e+00 1.490885e+00 1.097374e+00 1.631348e-01
<GCONST> 9.361662e+01
<STATE> 4
<MEAN> 26
 -1.642171e+00 5.426993e+00 -3.681596e+00 -6.891677e+00 -6.670356e+00 -7.948797e-01 -3.290876e+00 -6.878534e+00 -9.266492e+00 -1.002029e+01 -1.084958e+00 -4.504223e+00 5.090765e+01 -5.077391e-01 -2.388836e-01 2.616615e-01 1.657443e+00 1.019548e+00 -2.319651e-01 6.609417e-01 2.834706e-01 9.118332e-01 1.111808e+00 1.952584e-01 5.856783e-01 -1.484474e+00
<VARIANCE> 26
 2.752482e+01 2.134859e+01 2.868856e+01 6.653622e+01 5.525536e+01 4.950189e+01 6.003746e+01 5.752862e+01 5.322070e+01 5.594720e+01 7.614803e+01 3.239398e+01 5.745470e+01 9.006492e-01 2.085407e+00 1.490986e+00 2.679751e+00 3.680620e+00 3.012344e+00 4.667892e+00 3.064307e+00 2.623408e+00 3.025722e+00 3.109805e+00 2.095263e+00 8.600981e-01
<GCONST> 1.085138e+02
<TRANSP> 5
 0.000000e+00 1.000000e+00 0.000000e+00 0.000000e+00 0.000000e+00
 0.000000e+00 8.443100e-01 1.556900e-01 0.000000e+00 0.000000e+00
 0.000000e+00 0.000000e+00 9.422931e-01 5.770687e-02 0.000000e+00
 0.000000e+00 0.000000e+00 0.000000e+00 8.869802e-01 1.130198e-01
 0.000000e+00 0.000000e+00 0.000000e+00 0.000000e+00 0.000000e+00
<ENDHMM>
