~o
<STREAMINFO> 1 26
<VECSIZE> 26<NULLD><MFCC_D_0><DIAGC>
~h "ZERO"
<BEGINHMM>
<NUMSTATES> 5
<STATE> 2
<MEAN> 26
 -1.600513e+01 7.691348e+00 2.563827e+00 4.673769e+00 2.310682e+00 -1.038215e+01 -3.665469e-01 -4.584953e+00 -4.288003e+00 -4.740668e+00 -2.191956e+00 -6.668746e-01 5.596476e+01 8.964770e-02 -3.904409e-01 6.955349e-01 2.865633e-02 -1.265562e+00 -5.162678e-01 -1.792405e-01 -5.595674e-01 -6.804211e-01 -1.679886e-01 3.306123e-01 -3.075457e-02 1.292510e+00
<VARIANCE> 26
 3.894593e+01 3.997683e+01 4.023529e+01 3.154872e+01 5.479847e+01 6.025885e+01 3.120278e+01 3.131229e+01 3.643964e+01 2.622627e+01 2.197376e+01 2.702744e+01 4.375031e+01 3.287802e+00 3.340639e+00 3.340226e+00 2.390332e+00 4.978840e+00 3.154676e+00 3.130193e+00 2.951396e+00 2.983296e+00 2.330070e+00 2.461501e+00 2.626048e+00 1.192867e+00
<GCONST> 1.077288e+02
<STATE> 3
<MEAN> 26
 -7.543991e+00 -4.606031e+00 1.015764e+01 -9.024641e-01 -1.746532e+01 -9.054432e+00 -1.152233e+01 -1.045636e+01 -7.419124e+00 -7.053230e+00 2.030838e+00 -7.215822e+00 6.602032e+01 6.357069e-01 -6.423775e-01 -9.171528e-01 -5.872871e-01 -2.168123e-01 7.935142e-01 -1.076390e+00 -2.107675e-02 6.546956e-01 3.705216e-01 2.212873e-01 -4.852036e-01 2.423465e-01
<VARIANCE> 26
 1.682276e+01 5.465192e+01 7.390229e+01 7.893661e+01 4.054852e+01 4.369308e+01 6.748164e+01 5.487183e+01 9.699162e+01 9.017643e+01 8.797553e+01 3.710449e+01 1.760271e+01 8.227425e-01 1.674110e+00 4.400863e+00 3.612309e+00 6.366390e+00 5.101029e+00 4.891368e+00 4.459028e+00 4.557672e+00 5.264825e+00 5.902767e+00 3.305521e+00 1.013642e+00
<GCONST> 1.148233e+02
<STATE> 4
<MEAN> 26
 -1.027359e+00 -4.565322e-01 -8.643270e+00 -1.517266e+01 -7.463099e+00 3.937799e+00 -8.344670e+00 -8.261886e+00 -6.498058e+00 -4.232168e+00 4.324061e+00 -3.810764e+00 5.906802e+01 -1.419915e-01 6.179420e-01 6.240065e-02 5.463267e-02 6.562746e-01 1.843117e-01 1.103618e+00 2.506108e-01 -2.856876e-01 -3.018945e-01 -1.199337e-01 5.610011e-01 -1.184261e+00
<VARIANCE> 26
 2.153537e+01 3.644217e+01 4.138856e+01 1.103785e+02 7.083480e+01 6.151539e+01 1.043395e+02 5.076426e+01 4.917407e+01 6.556680e+01 8.934429e+01 4.849359e+01 9.292249e+01 7.870207e-01 1.211739e+00 1.398723e+00 6.269634e+00 2.624251e+00 2.151563e+00 2.658021e+00 2.596519e+00 3.644662e+00 3.141196e+00 3.405834e+00 2.687592e+00 1.080646e+00
<GCONST> 1.113319e+02
<TRANSP> 5
 0.000000e+00 1.000000e+00 0.000000e+00 0.000000e+00 0.000000e+00
 0.000000e+00 9.115130e-01 8.848703e-02 0.000000e+00 0.000000e+00
 0.000000e+00 0.000000e+00 9.448180e-01 5.518209e-02 0.000000e+00
 0.000000e+00 0.000000e+00 0.000000e+00 9.482743e-01 5.172573e-02
 0.000000e+00 0.000000e+00 0.000000e+00 0.000000e+00 0.000000e+00
<ENDHMM>
